digraph Tree {
node [shape=box] ;
0 [label="Sex <= 0.5\ngini = 0.477\nsamples = 783\nvalue = [475, 308]"] ;
1 [label="Age <= 5.0\ngini = 0.234\nsamples = 495\nvalue = [428, 67]"] ;
0 -> 1 [labeldistance=2.5, labelangle=45, headlabel="True"] ;
2 [label="SibSp <= 2.5\ngini = 0.484\nsamples = 17\nvalue = [7, 10]"] ;
1 -> 2 ;
3 [label="Age <= 0.79\ngini = 0.18\nsamples = 10\nvalue = [1, 9]"] ;
2 -> 3 ;
4 [label="Age <= 0.585\ngini = 0.5\nsamples = 2\nvalue = [1, 1]"] ;
3 -> 4 ;
5 [label="gini = 0.0\nsamples = 1\nvalue = [0, 1]"] ;
4 -> 5 ;
6 [label="gini = 0.0\nsamples = 1\nvalue = [1, 0]"] ;
4 -> 6 ;
7 [label="gini = 0.0\nsamples = 8\nvalue = [0, 8]"] ;
3 -> 7 ;
8 [label="Fare <= 31.331\ngini = 0.245\nsamples = 7\nvalue = [6, 1]"] ;
2 -> 8 ;
9 [label="gini = 0.0\nsamples = 4\nvalue = [4, 0]"] ;
8 -> 9 ;
10 [label="Fare <= 35.538\ngini = 0.444\nsamples = 3\nvalue = [2, 1]"] ;
8 -> 10 ;
11 [label="gini = 0.0\nsamples = 1\nvalue = [0, 1]"] ;
10 -> 11 ;
12 [label="gini = 0.0\nsamples = 2\nvalue = [2, 0]"] ;
10 -> 12 ;
13 [label="Pclass <= 1.5\ngini = 0.21\nsamples = 478\nvalue = [421, 57]"] ;
1 -> 13 ;
14 [label="Age <= 52.5\ngini = 0.4\nsamples = 105\nvalue = [76, 29]"] ;
13 -> 14 ;
15 [label="Fare <= 26.144\ngini = 0.442\nsamples = 82\nvalue = [55, 27]"] ;
14 -> 15 ;
16 [label="gini = 0.0\nsamples = 8\nvalue = [8, 0]"] ;
15 -> 16 ;
17 [label="Fare <= 27.135\ngini = 0.463\nsamples = 74\nvalue = [47, 27]"] ;
15 -> 17 ;
18 [label="Age <= 33.5\ngini = 0.32\nsamples = 10\nvalue = [2, 8]"] ;
17 -> 18 ;
19 [label="Age <= 30.5\ngini = 0.5\nsamples = 2\nvalue = [1, 1]"] ;
18 -> 19 ;
20 [label="gini = 0.0\nsamples = 1\nvalue = [0, 1]"] ;
19 -> 20 ;
21 [label="gini = 0.0\nsamples = 1\nvalue = [1, 0]"] ;
19 -> 21 ;
22 [label="Age <= 43.5\ngini = 0.219\nsamples = 8\nvalue = [1, 7]"] ;
18 -> 22 ;
23 [label="gini = 0.0\nsamples = 5\nvalue = [0, 5]"] ;
22 -> 23 ;
24 [label="Age <= 46.5\ngini = 0.444\nsamples = 3\nvalue = [1, 2]"] ;
22 -> 24 ;
25 [label="gini = 0.0\nsamples = 1\nvalue = [1, 0]"] ;
24 -> 25 ;
26 [label="gini = 0.0\nsamples = 2\nvalue = [0, 2]"] ;
24 -> 26 ;
27 [label="Fare <= 29.85\ngini = 0.417\nsamples = 64\nvalue = [45, 19]"] ;
17 -> 27 ;
28 [label="gini = 0.0\nsamples = 8\nvalue = [8, 0]"] ;
27 -> 28 ;
29 [label="Fare <= 32.51\ngini = 0.448\nsamples = 56\nvalue = [37, 19]"] ;
27 -> 29 ;
30 [label="Age <= 28.0\ngini = 0.408\nsamples = 7\nvalue = [2, 5]"] ;
29 -> 30 ;
31 [label="gini = 0.0\nsamples = 2\nvalue = [0, 2]"] ;
30 -> 31 ;
32 [label="Fare <= 30.25\ngini = 0.48\nsamples = 5\nvalue = [2, 3]"] ;
30 -> 32 ;
33 [label="gini = 0.0\nsamples = 1\nvalue = [1, 0]"] ;
32 -> 33 ;
34 [label="Age <= 40.5\ngini = 0.375\nsamples = 4\nvalue = [1, 3]"] ;
32 -> 34 ;
35 [label="gini = 0.0\nsamples = 2\nvalue = [0, 2]"] ;
34 -> 35 ;
36 [label="Age <= 46.5\ngini = 0.5\nsamples = 2\nvalue = [1, 1]"] ;
34 -> 36 ;
37 [label="gini = 0.0\nsamples = 1\nvalue = [1, 0]"] ;
36 -> 37 ;
38 [label="gini = 0.0\nsamples = 1\nvalue = [0, 1]"] ;
36 -> 38 ;
39 [label="Fare <= 51.248\ngini = 0.408\nsamples = 49\nvalue = [35, 14]"] ;
29 -> 39 ;
40 [label="Age <= 29.0\ngini = 0.165\nsamples = 11\nvalue = [10, 1]"] ;
39 -> 40 ;
41 [label="Fare <= 41.3\ngini = 0.444\nsamples = 3\nvalue = [2, 1]"] ;
40 -> 41 ;
42 [label="gini = 0.0\nsamples = 1\nvalue = [0, 1]"] ;
41 -> 42 ;
43 [label="gini = 0.0\nsamples = 2\nvalue = [2, 0]"] ;
41 -> 43 ;
44 [label="gini = 0.0\nsamples = 8\nvalue = [8, 0]"] ;
40 -> 44 ;
45 [label="Fare <= 58.5\ngini = 0.45\nsamples = 38\nvalue = [25, 13]"] ;
39 -> 45 ;
46 [label="Age <= 22.0\ngini = 0.375\nsamples = 8\nvalue = [2, 6]"] ;
45 -> 46 ;
47 [label="gini = 0.0\nsamples = 1\nvalue = [1, 0]"] ;
46 -> 47 ;
48 [label="Age <= 34.0\ngini = 0.245\nsamples = 7\nvalue = [1, 6]"] ;
46 -> 48 ;
49 [label="gini = 0.0\nsamples = 3\nvalue = [0, 3]"] ;
48 -> 49 ;
50 [label="Age <= 39.5\ngini = 0.375\nsamples = 4\nvalue = [1, 3]"] ;
48 -> 50 ;
51 [label="gini = 0.0\nsamples = 1\nvalue = [1, 0]"] ;
50 -> 51 ;
52 [label="gini = 0.0\nsamples = 3\nvalue = [0, 3]"] ;
50 -> 52 ;
53 [label="Age <= 14.5\ngini = 0.358\nsamples = 30\nvalue = [23, 7]"] ;
45 -> 53 ;
54 [label="gini = 0.0\nsamples = 1\nvalue = [0, 1]"] ;
53 -> 54 ;
55 [label="Fare <= 387.665\ngini = 0.328\nsamples = 29\nvalue = [23, 6]"] ;
53 -> 55 ;
56 [label="Age <= 47.0\ngini = 0.293\nsamples = 28\nvalue = [23, 5]"] ;
55 -> 56 ;
57 [label="Parch <= 0.5\ngini = 0.227\nsamples = 23\nvalue = [20, 3]"] ;
56 -> 57 ;
58 [label="Fare <= 90.54\ngini = 0.124\nsamples = 15\nvalue = [14, 1]"] ;
57 -> 58 ;
59 [label="gini = 0.0\nsamples = 10\nvalue = [10, 0]"] ;
58 -> 59 ;
60 [label="Fare <= 92.29\ngini = 0.32\nsamples = 5\nvalue = [4, 1]"] ;
58 -> 60 ;
61 [label="gini = 0.0\nsamples = 1\nvalue = [0, 1]"] ;
60 -> 61 ;
62 [label="gini = 0.0\nsamples = 4\nvalue = [4, 0]"] ;
60 -> 62 ;
63 [label="Fare <= 70.323\ngini = 0.375\nsamples = 8\nvalue = [6, 2]"] ;
57 -> 63 ;
64 [label="gini = 0.0\nsamples = 1\nvalue = [0, 1]"] ;
63 -> 64 ;
65 [label="Fare <= 127.25\ngini = 0.245\nsamples = 7\nvalue = [6, 1]"] ;
63 -> 65 ;
66 [label="Fare <= 101.579\ngini = 0.444\nsamples = 3\nvalue = [2, 1]"] ;
65 -> 66 ;
67 [label="gini = 0.0\nsamples = 2\nvalue = [2, 0]"] ;
66 -> 67 ;
68 [label="gini = 0.0\nsamples = 1\nvalue = [0, 1]"] ;
66 -> 68 ;
69 [label="gini = 0.0\nsamples = 4\nvalue = [4, 0]"] ;
65 -> 69 ;
70 [label="Parch <= 0.5\ngini = 0.48\nsamples = 5\nvalue = [3, 2]"] ;
56 -> 70 ;
71 [label="gini = 0.0\nsamples = 2\nvalue = [0, 2]"] ;
70 -> 71 ;
72 [label="gini = 0.0\nsamples = 3\nvalue = [3, 0]"] ;
70 -> 72 ;
73 [label="gini = 0.0\nsamples = 1\nvalue = [0, 1]"] ;
55 -> 73 ;
74 [label="Age <= 75.5\ngini = 0.159\nsamples = 23\nvalue = [21, 2]"] ;
14 -> 74 ;
75 [label="Fare <= 78.244\ngini = 0.087\nsamples = 22\nvalue = [21, 1]"] ;
74 -> 75 ;
76 [label="gini = 0.0\nsamples = 16\nvalue = [16, 0]"] ;
75 -> 76 ;
77 [label="Fare <= 80.529\ngini = 0.278\nsamples = 6\nvalue = [5, 1]"] ;
75 -> 77 ;
78 [label="gini = 0.0\nsamples = 1\nvalue = [0, 1]"] ;
77 -> 78 ;
79 [label="gini = 0.0\nsamples = 5\nvalue = [5, 0]"] ;
77 -> 79 ;
80 [label="gini = 0.0\nsamples = 1\nvalue = [0, 1]"] ;
74 -> 80 ;
81 [label="Fare <= 51.698\ngini = 0.139\nsamples = 373\nvalue = [345, 28]"] ;
13 -> 81 ;
82 [label="Fare <= 1.585\ngini = 0.129\nsamples = 361\nvalue = [336, 25]"] ;
81 -> 82 ;
83 [label="Age <= 30.5\ngini = 0.5\nsamples = 2\nvalue = [1, 1]"] ;
82 -> 83 ;
84 [label="gini = 0.0\nsamples = 1\nvalue = [0, 1]"] ;
83 -> 84 ;
85 [label="gini = 0.0\nsamples = 1\nvalue = [1, 0]"] ;
83 -> 85 ;
86 [label="Age <= 26.75\ngini = 0.125\nsamples = 359\nvalue = [335, 24]"] ;
82 -> 86 ;
87 [label="Fare <= 7.227\ngini = 0.067\nsamples = 174\nvalue = [168, 6]"] ;
86 -> 87 ;
88 [label="Fare <= 7.133\ngini = 0.208\nsamples = 17\nvalue = [15, 2]"] ;
87 -> 88 ;
89 [label="gini = 0.0\nsamples = 11\nvalue = [11, 0]"] ;
88 -> 89 ;
90 [label="Fare <= 7.183\ngini = 0.444\nsamples = 6\nvalue = [4, 2]"] ;
88 -> 90 ;
91 [label="gini = 0.0\nsamples = 1\nvalue = [0, 1]"] ;
90 -> 91 ;
92 [label="Age <= 22.25\ngini = 0.32\nsamples = 5\nvalue = [4, 1]"] ;
90 -> 92 ;
93 [label="Age <= 21.0\ngini = 0.5\nsamples = 2\nvalue = [1, 1]"] ;
92 -> 93 ;
94 [label="gini = 0.0\nsamples = 1\nvalue = [1, 0]"] ;
93 -> 94 ;
95 [label="gini = 0.0\nsamples = 1\nvalue = [0, 1]"] ;
93 -> 95 ;
96 [label="gini = 0.0\nsamples = 3\nvalue = [3, 0]"] ;
92 -> 96 ;
97 [label="Age <= 21.5\ngini = 0.05\nsamples = 157\nvalue = [153, 4]"] ;
87 -> 97 ;
98 [label="Age <= 17.5\ngini = 0.087\nsamples = 88\nvalue = [84, 4]"] ;
97 -> 98 ;
99 [label="gini = 0.0\nsamples = 28\nvalue = [28, 0]"] ;
98 -> 99 ;
100 [label="Parch <= 0.5\ngini = 0.124\nsamples = 60\nvalue = [56, 4]"] ;
98 -> 100 ;
101 [label="Fare <= 7.785\ngini = 0.103\nsamples = 55\nvalue = [52, 3]"] ;
100 -> 101 ;
102 [label="gini = 0.0\nsamples = 11\nvalue = [11, 0]"] ;
101 -> 102 ;
103 [label="Fare <= 7.798\ngini = 0.127\nsamples = 44\nvalue = [41, 3]"] ;
101 -> 103 ;
104 [label="Age <= 19.5\ngini = 0.444\nsamples = 3\nvalue = [2, 1]"] ;
103 -> 104 ;
105 [label="gini = 0.0\nsamples = 1\nvalue = [1, 0]"] ;
104 -> 105 ;
106 [label="gini = 0.5\nsamples = 2\nvalue = [1, 1]"] ;
104 -> 106 ;
107 [label="Age <= 19.5\ngini = 0.093\nsamples = 41\nvalue = [39, 2]"] ;
103 -> 107 ;
108 [label="Fare <= 11.0\ngini = 0.208\nsamples = 17\nvalue = [15, 2]"] ;
107 -> 108 ;
109 [label="Fare <= 7.973\ngini = 0.278\nsamples = 12\nvalue = [10, 2]"] ;
108 -> 109 ;
110 [label="gini = 0.0\nsamples = 3\nvalue = [3, 0]"] ;
109 -> 110 ;
111 [label="Fare <= 8.175\ngini = 0.346\nsamples = 9\nvalue = [7, 2]"] ;
109 -> 111 ;
112 [label="Age <= 18.5\ngini = 0.5\nsamples = 2\nvalue = [1, 1]"] ;
111 -> 112 ;
113 [label="gini = 0.0\nsamples = 1\nvalue = [0, 1]"] ;
112 -> 113 ;
114 [label="gini = 0.0\nsamples = 1\nvalue = [1, 0]"] ;
112 -> 114 ;
115 [label="Pclass <= 2.5\ngini = 0.245\nsamples = 7\nvalue = [6, 1]"] ;
111 -> 115 ;
116 [label="Age <= 18.5\ngini = 0.375\nsamples = 4\nvalue = [3, 1]"] ;
115 -> 116 ;
117 [label="gini = 0.0\nsamples = 1\nvalue = [1, 0]"] ;
116 -> 117 ;
118 [label="gini = 0.444\nsamples = 3\nvalue = [2, 1]"] ;
116 -> 118 ;
119 [label="gini = 0.0\nsamples = 3\nvalue = [3, 0]"] ;
115 -> 119 ;
120 [label="gini = 0.0\nsamples = 5\nvalue = [5, 0]"] ;
108 -> 120 ;
121 [label="gini = 0.0\nsamples = 24\nvalue = [24, 0]"] ;
107 -> 121 ;
122 [label="Age <= 19.5\ngini = 0.32\nsamples = 5\nvalue = [4, 1]"] ;
100 -> 122 ;
123 [label="gini = 0.0\nsamples = 4\nvalue = [4, 0]"] ;
122 -> 123 ;
124 [label="gini = 0.0\nsamples = 1\nvalue = [0, 1]"] ;
122 -> 124 ;
125 [label="gini = 0.0\nsamples = 69\nvalue = [69, 0]"] ;
97 -> 125 ;
126 [label="Fare <= 13.208\ngini = 0.176\nsamples = 185\nvalue = [167, 18]"] ;
86 -> 126 ;
127 [label="Age <= 32.25\ngini = 0.238\nsamples = 123\nvalue = [106, 17]"] ;
126 -> 127 ;
128 [label="Fare <= 7.01\ngini = 0.324\nsamples = 54\nvalue = [43, 11]"] ;
127 -> 128 ;
129 [label="gini = 0.0\nsamples = 1\nvalue = [0, 1]"] ;
128 -> 129 ;
130 [label="Age <= 28.75\ngini = 0.306\nsamples = 53\nvalue = [43, 10]"] ;
128 -> 130 ;
131 [label="Age <= 27.5\ngini = 0.117\nsamples = 16\nvalue = [15, 1]"] ;
130 -> 131 ;
132 [label="Fare <= 8.258\ngini = 0.32\nsamples = 5\nvalue = [4, 1]"] ;
131 -> 132 ;
133 [label="gini = 0.0\nsamples = 2\nvalue = [2, 0]"] ;
132 -> 133 ;
134 [label="Fare <= 10.831\ngini = 0.444\nsamples = 3\nvalue = [2, 1]"] ;
132 -> 134 ;
135 [label="gini = 0.5\nsamples = 2\nvalue = [1, 1]"] ;
134 -> 135 ;
136 [label="gini = 0.0\nsamples = 1\nvalue = [1, 0]"] ;
134 -> 136 ;
137 [label="gini = 0.0\nsamples = 11\nvalue = [11, 0]"] ;
131 -> 137 ;
138 [label="Fare <= 7.665\ngini = 0.368\nsamples = 37\nvalue = [28, 9]"] ;
130 -> 138 ;
139 [label="gini = 0.0\nsamples = 5\nvalue = [5, 0]"] ;
138 -> 139 ;
140 [label="Pclass <= 2.5\ngini = 0.404\nsamples = 32\nvalue = [23, 9]"] ;
138 -> 140 ;
141 [label="Age <= 30.5\ngini = 0.18\nsamples = 10\nvalue = [9, 1]"] ;
140 -> 141 ;
142 [label="gini = 0.0\nsamples = 6\nvalue = [6, 0]"] ;
141 -> 142 ;
143 [label="Age <= 31.5\ngini = 0.375\nsamples = 4\nvalue = [3, 1]"] ;
141 -> 143 ;
144 [label="Fare <= 11.75\ngini = 0.5\nsamples = 2\nvalue = [1, 1]"] ;
143 -> 144 ;
145 [label="gini = 0.0\nsamples = 1\nvalue = [1, 0]"] ;
144 -> 145 ;
146 [label="gini = 0.0\nsamples = 1\nvalue = [0, 1]"] ;
144 -> 146 ;
147 [label="gini = 0.0\nsamples = 2\nvalue = [2, 0]"] ;
143 -> 147 ;
148 [label="Fare <= 9.492\ngini = 0.463\nsamples = 22\nvalue = [14, 8]"] ;
140 -> 148 ;
149 [label="Fare <= 7.988\ngini = 0.42\nsamples = 20\nvalue = [14, 6]"] ;
148 -> 149 ;
150 [label="Fare <= 7.815\ngini = 0.486\nsamples = 12\nvalue = [7, 5]"] ;
149 -> 150 ;
151 [label="Age <= 30.0\ngini = 0.375\nsamples = 4\nvalue = [3, 1]"] ;
150 -> 151 ;
152 [label="gini = 0.0\nsamples = 1\nvalue = [0, 1]"] ;
151 -> 152 ;
153 [label="gini = 0.0\nsamples = 3\nvalue = [3, 0]"] ;
151 -> 153 ;
154 [label="Fare <= 7.865\ngini = 0.5\nsamples = 8\nvalue = [4, 4]"] ;
150 -> 154 ;
155 [label="gini = 0.0\nsamples = 1\nvalue = [0, 1]"] ;
154 -> 155 ;
156 [label="Fare <= 7.885\ngini = 0.49\nsamples = 7\nvalue = [4, 3]"] ;
154 -> 156 ;
157 [label="gini = 0.0\nsamples = 1\nvalue = [1, 0]"] ;
156 -> 157 ;
158 [label="Age <= 31.5\ngini = 0.5\nsamples = 6\nvalue = [3, 3]"] ;
156 -> 158 ;
159 [label="Age <= 30.0\ngini = 0.444\nsamples = 3\nvalue = [1, 2]"] ;
158 -> 159 ;
160 [label="Fare <= 7.91\ngini = 0.5\nsamples = 2\nvalue = [1, 1]"] ;
159 -> 160 ;
161 [label="gini = 0.0\nsamples = 1\nvalue = [0, 1]"] ;
160 -> 161 ;
162 [label="gini = 0.0\nsamples = 1\nvalue = [1, 0]"] ;
160 -> 162 ;
163 [label="gini = 0.0\nsamples = 1\nvalue = [0, 1]"] ;
159 -> 163 ;
164 [label="Fare <= 7.91\ngini = 0.444\nsamples = 3\nvalue = [2, 1]"] ;
158 -> 164 ;
165 [label="gini = 0.0\nsamples = 1\nvalue = [1, 0]"] ;
164 -> 165 ;
166 [label="gini = 0.5\nsamples = 2\nvalue = [1, 1]"] ;
164 -> 166 ;
167 [label="Age <= 31.25\ngini = 0.219\nsamples = 8\nvalue = [7, 1]"] ;
149 -> 167 ;
168 [label="gini = 0.0\nsamples = 5\nvalue = [5, 0]"] ;
167 -> 168 ;
169 [label="Fare <= 8.206\ngini = 0.444\nsamples = 3\nvalue = [2, 1]"] ;
167 -> 169 ;
170 [label="gini = 0.5\nsamples = 2\nvalue = [1, 1]"] ;
169 -> 170 ;
171 [label="gini = 0.0\nsamples = 1\nvalue = [1, 0]"] ;
169 -> 171 ;
172 [label="gini = 0.0\nsamples = 2\nvalue = [0, 2]"] ;
148 -> 172 ;
173 [label="Fare <= 7.91\ngini = 0.159\nsamples = 69\nvalue = [63, 6]"] ;
127 -> 173 ;
174 [label="gini = 0.0\nsamples = 26\nvalue = [26, 0]"] ;
173 -> 174 ;
175 [label="Fare <= 7.988\ngini = 0.24\nsamples = 43\nvalue = [37, 6]"] ;
173 -> 175 ;
176 [label="Age <= 41.5\ngini = 0.444\nsamples = 3\nvalue = [1, 2]"] ;
175 -> 176 ;
177 [label="gini = 0.5\nsamples = 2\nvalue = [1, 1]"] ;
176 -> 177 ;
178 [label="gini = 0.0\nsamples = 1\nvalue = [0, 1]"] ;
176 -> 178 ;
179 [label="Age <= 61.5\ngini = 0.18\nsamples = 40\nvalue = [36, 4]"] ;
175 -> 179 ;
180 [label="Fare <= 12.762\ngini = 0.153\nsamples = 36\nvalue = [33, 3]"] ;
179 -> 180 ;
181 [label="Age <= 44.5\ngini = 0.08\nsamples = 24\nvalue = [23, 1]"] ;
180 -> 181 ;
182 [label="gini = 0.0\nsamples = 15\nvalue = [15, 0]"] ;
181 -> 182 ;
183 [label="Age <= 46.0\ngini = 0.198\nsamples = 9\nvalue = [8, 1]"] ;
181 -> 183 ;
184 [label="gini = 0.0\nsamples = 1\nvalue = [0, 1]"] ;
183 -> 184 ;
185 [label="gini = 0.0\nsamples = 8\nvalue = [8, 0]"] ;
183 -> 185 ;
186 [label="Age <= 35.0\ngini = 0.278\nsamples = 12\nvalue = [10, 2]"] ;
180 -> 186 ;
187 [label="gini = 0.444\nsamples = 3\nvalue = [2, 1]"] ;
186 -> 187 ;
188 [label="Age <= 41.5\ngini = 0.198\nsamples = 9\nvalue = [8, 1]"] ;
186 -> 188 ;
189 [label="gini = 0.0\nsamples = 5\nvalue = [5, 0]"] ;
188 -> 189 ;
190 [label="Age <= 43.0\ngini = 0.375\nsamples = 4\nvalue = [3, 1]"] ;
188 -> 190 ;
191 [label="gini = 0.0\nsamples = 1\nvalue = [0, 1]"] ;
190 -> 191 ;
192 [label="gini = 0.0\nsamples = 3\nvalue = [3, 0]"] ;
190 -> 192 ;
193 [label="Age <= 64.0\ngini = 0.375\nsamples = 4\nvalue = [3, 1]"] ;
179 -> 193 ;
194 [label="Fare <= 10.094\ngini = 0.5\nsamples = 2\nvalue = [1, 1]"] ;
193 -> 194 ;
195 [label="gini = 0.0\nsamples = 1\nvalue = [1, 0]"] ;
194 -> 195 ;
196 [label="gini = 0.0\nsamples = 1\nvalue = [0, 1]"] ;
194 -> 196 ;
197 [label="gini = 0.0\nsamples = 2\nvalue = [2, 0]"] ;
193 -> 197 ;
198 [label="Age <= 32.25\ngini = 0.032\nsamples = 62\nvalue = [61, 1]"] ;
126 -> 198 ;
199 [label="Age <= 31.5\ngini = 0.091\nsamples = 21\nvalue = [20, 1]"] ;
198 -> 199 ;
200 [label="gini = 0.0\nsamples = 17\nvalue = [17, 0]"] ;
199 -> 200 ;
201 [label="Fare <= 24.262\ngini = 0.375\nsamples = 4\nvalue = [3, 1]"] ;
199 -> 201 ;
202 [label="gini = 0.0\nsamples = 3\nvalue = [3, 0]"] ;
201 -> 202 ;
203 [label="gini = 0.0\nsamples = 1\nvalue = [0, 1]"] ;
201 -> 203 ;
204 [label="gini = 0.0\nsamples = 41\nvalue = [41, 0]"] ;
198 -> 204 ;
205 [label="Pclass <= 2.5\ngini = 0.375\nsamples = 12\nvalue = [9, 3]"] ;
81 -> 205 ;
206 [label="gini = 0.0\nsamples = 9\nvalue = [9, 0]"] ;
205 -> 206 ;
207 [label="gini = 0.0\nsamples = 3\nvalue = [0, 3]"] ;
205 -> 207 ;
208 [label="Pclass <= 2.5\ngini = 0.273\nsamples = 288\nvalue = [47, 241]"] ;
0 -> 208 [labeldistance=2.5, labelangle=-45, headlabel="False"] ;
209 [label="Fare <= 26.125\ngini = 0.087\nsamples = 175\nvalue = [8, 167]"] ;
208 -> 209 ;
210 [label="Age <= 56.0\ngini = 0.194\nsamples = 55\nvalue = [6, 49]"] ;
209 -> 210 ;
211 [label="Age <= 23.5\ngini = 0.171\nsamples = 53\nvalue = [5, 48]"] ;
210 -> 211 ;
212 [label="gini = 0.0\nsamples = 14\nvalue = [0, 14]"] ;
211 -> 212 ;
213 [label="Age <= 27.5\ngini = 0.224\nsamples = 39\nvalue = [5, 34]"] ;
211 -> 213 ;
214 [label="Fare <= 19.875\ngini = 0.444\nsamples = 9\nvalue = [3, 6]"] ;
213 -> 214 ;
215 [label="Fare <= 13.429\ngini = 0.278\nsamples = 6\nvalue = [1, 5]"] ;
214 -> 215 ;
216 [label="Age <= 25.5\ngini = 0.444\nsamples = 3\nvalue = [1, 2]"] ;
215 -> 216 ;
217 [label="gini = 0.5\nsamples = 2\nvalue = [1, 1]"] ;
216 -> 217 ;
218 [label="gini = 0.0\nsamples = 1\nvalue = [0, 1]"] ;
216 -> 218 ;
219 [label="gini = 0.0\nsamples = 3\nvalue = [0, 3]"] ;
215 -> 219 ;
220 [label="Age <= 25.0\ngini = 0.444\nsamples = 3\nvalue = [2, 1]"] ;
214 -> 220 ;
221 [label="gini = 0.0\nsamples = 1\nvalue = [0, 1]"] ;
220 -> 221 ;
222 [label="gini = 0.0\nsamples = 2\nvalue = [2, 0]"] ;
220 -> 222 ;
223 [label="Age <= 37.0\ngini = 0.124\nsamples = 30\nvalue = [2, 28]"] ;
213 -> 223 ;
224 [label="gini = 0.0\nsamples = 17\nvalue = [0, 17]"] ;
223 -> 224 ;
225 [label="Age <= 39.0\ngini = 0.26\nsamples = 13\nvalue = [2, 11]"] ;
223 -> 225 ;
226 [label="gini = 0.0\nsamples = 1\nvalue = [1, 0]"] ;
225 -> 226 ;
227 [label="Fare <= 25.965\ngini = 0.153\nsamples = 12\nvalue = [1, 11]"] ;
225 -> 227 ;
228 [label="gini = 0.0\nsamples = 10\nvalue = [0, 10]"] ;
227 -> 228 ;
229 [label="Parch <= 0.5\ngini = 0.5\nsamples = 2\nvalue = [1, 1]"] ;
227 -> 229 ;
230 [label="gini = 0.0\nsamples = 1\nvalue = [1, 0]"] ;
229 -> 230 ;
231 [label="gini = 0.0\nsamples = 1\nvalue = [0, 1]"] ;
229 -> 231 ;
232 [label="Age <= 58.5\ngini = 0.5\nsamples = 2\nvalue = [1, 1]"] ;
210 -> 232 ;
233 [label="gini = 0.0\nsamples = 1\nvalue = [1, 0]"] ;
232 -> 233 ;
234 [label="gini = 0.0\nsamples = 1\nvalue = [0, 1]"] ;
232 -> 234 ;
235 [label="Age <= 2.5\ngini = 0.033\nsamples = 120\nvalue = [2, 118]"] ;
209 -> 235 ;
236 [label="Fare <= 89.65\ngini = 0.5\nsamples = 2\nvalue = [1, 1]"] ;
235 -> 236 ;
237 [label="gini = 0.0\nsamples = 1\nvalue = [0, 1]"] ;
236 -> 237 ;
238 [label="gini = 0.0\nsamples = 1\nvalue = [1, 0]"] ;
236 -> 238 ;
239 [label="Parch <= 1.5\ngini = 0.017\nsamples = 118\nvalue = [1, 117]"] ;
235 -> 239 ;
240 [label="gini = 0.0\nsamples = 96\nvalue = [0, 96]"] ;
239 -> 240 ;
241 [label="Fare <= 135.775\ngini = 0.087\nsamples = 22\nvalue = [1, 21]"] ;
239 -> 241 ;
242 [label="gini = 0.0\nsamples = 16\nvalue = [0, 16]"] ;
241 -> 242 ;
243 [label="Fare <= 206.963\ngini = 0.278\nsamples = 6\nvalue = [1, 5]"] ;
241 -> 243 ;
244 [label="gini = 0.0\nsamples = 1\nvalue = [1, 0]"] ;
243 -> 244 ;
245 [label="gini = 0.0\nsamples = 5\nvalue = [0, 5]"] ;
243 -> 245 ;
246 [label="Fare <= 20.825\ngini = 0.452\nsamples = 113\nvalue = [39, 74]"] ;
208 -> 246 ;
247 [label="Fare <= 7.742\ngini = 0.4\nsamples = 94\nvalue = [26, 68]"] ;
246 -> 247 ;
248 [label="gini = 0.0\nsamples = 14\nvalue = [0, 14]"] ;
247 -> 248 ;
249 [label="Parch <= 0.5\ngini = 0.439\nsamples = 80\nvalue = [26, 54]"] ;
247 -> 249 ;
250 [label="Fare <= 8.767\ngini = 0.494\nsamples = 47\nvalue = [21, 26]"] ;
249 -> 250 ;
251 [label="Age <= 29.5\ngini = 0.444\nsamples = 27\nvalue = [9, 18]"] ;
250 -> 251 ;
252 [label="Age <= 25.5\ngini = 0.363\nsamples = 21\nvalue = [5, 16]"] ;
251 -> 252 ;
253 [label="Age <= 24.5\ngini = 0.43\nsamples = 16\nvalue = [5, 11]"] ;
252 -> 253 ;
254 [label="Age <= 19.5\ngini = 0.337\nsamples = 14\nvalue = [3, 11]"] ;
253 -> 254 ;
255 [label="gini = 0.0\nsamples = 4\nvalue = [0, 4]"] ;
254 -> 255 ;
256 [label="Age <= 21.5\ngini = 0.42\nsamples = 10\nvalue = [3, 7]"] ;
254 -> 256 ;
257 [label="gini = 0.0\nsamples = 2\nvalue = [2, 0]"] ;
256 -> 257 ;
258 [label="Age <= 22.5\ngini = 0.219\nsamples = 8\nvalue = [1, 7]"] ;
256 -> 258 ;
259 [label="gini = 0.0\nsamples = 4\nvalue = [0, 4]"] ;
258 -> 259 ;
260 [label="Fare <= 7.988\ngini = 0.375\nsamples = 4\nvalue = [1, 3]"] ;
258 -> 260 ;
261 [label="Age <= 23.5\ngini = 0.5\nsamples = 2\nvalue = [1, 1]"] ;
260 -> 261 ;
262 [label="gini = 0.0\nsamples = 1\nvalue = [1, 0]"] ;
261 -> 262 ;
263 [label="gini = 0.0\nsamples = 1\nvalue = [0, 1]"] ;
261 -> 263 ;
264 [label="gini = 0.0\nsamples = 2\nvalue = [0, 2]"] ;
260 -> 264 ;
265 [label="gini = 0.0\nsamples = 2\nvalue = [2, 0]"] ;
253 -> 265 ;
266 [label="gini = 0.0\nsamples = 5\nvalue = [0, 5]"] ;
252 -> 266 ;
267 [label="Fare <= 8.673\ngini = 0.444\nsamples = 6\nvalue = [4, 2]"] ;
251 -> 267 ;
268 [label="Age <= 33.0\ngini = 0.32\nsamples = 5\nvalue = [4, 1]"] ;
267 -> 268 ;
269 [label="gini = 0.0\nsamples = 3\nvalue = [3, 0]"] ;
268 -> 269 ;
270 [label="Age <= 40.0\ngini = 0.5\nsamples = 2\nvalue = [1, 1]"] ;
268 -> 270 ;
271 [label="gini = 0.0\nsamples = 1\nvalue = [0, 1]"] ;
270 -> 271 ;
272 [label="gini = 0.0\nsamples = 1\nvalue = [1, 0]"] ;
270 -> 272 ;
273 [label="gini = 0.0\nsamples = 1\nvalue = [0, 1]"] ;
267 -> 273 ;
274 [label="Age <= 14.25\ngini = 0.48\nsamples = 20\nvalue = [12, 8]"] ;
250 -> 274 ;
275 [label="gini = 0.0\nsamples = 1\nvalue = [0, 1]"] ;
274 -> 275 ;
276 [label="Age <= 51.5\ngini = 0.465\nsamples = 19\nvalue = [12, 7]"] ;
274 -> 276 ;
277 [label="Fare <= 9.84\ngini = 0.444\nsamples = 18\nvalue = [12, 6]"] ;
276 -> 277 ;
278 [label="Fare <= 9.219\ngini = 0.245\nsamples = 7\nvalue = [6, 1]"] ;
277 -> 278 ;
279 [label="Fare <= 8.906\ngini = 0.5\nsamples = 2\nvalue = [1, 1]"] ;
278 -> 279 ;
280 [label="gini = 0.0\nsamples = 1\nvalue = [1, 0]"] ;
279 -> 280 ;
281 [label="gini = 0.0\nsamples = 1\nvalue = [0, 1]"] ;
279 -> 281 ;
282 [label="gini = 0.0\nsamples = 5\nvalue = [5, 0]"] ;
278 -> 282 ;
283 [label="Fare <= 17.7\ngini = 0.496\nsamples = 11\nvalue = [6, 5]"] ;
277 -> 283 ;
284 [label="Age <= 14.75\ngini = 0.494\nsamples = 9\nvalue = [4, 5]"] ;
283 -> 284 ;
285 [label="gini = 0.0\nsamples = 1\nvalue = [1, 0]"] ;
284 -> 285 ;
286 [label="SibSp <= 0.5\ngini = 0.469\nsamples = 8\nvalue = [3, 5]"] ;
284 -> 286 ;
287 [label="Fare <= 10.179\ngini = 0.444\nsamples = 3\nvalue = [2, 1]"] ;
286 -> 287 ;
288 [label="gini = 0.0\nsamples = 1\nvalue = [0, 1]"] ;
287 -> 288 ;
289 [label="gini = 0.0\nsamples = 2\nvalue = [2, 0]"] ;
287 -> 289 ;
290 [label="Fare <= 15.975\ngini = 0.32\nsamples = 5\nvalue = [1, 4]"] ;
286 -> 290 ;
291 [label="gini = 0.0\nsamples = 3\nvalue = [0, 3]"] ;
290 -> 291 ;
292 [label="Age <= 31.0\ngini = 0.5\nsamples = 2\nvalue = [1, 1]"] ;
290 -> 292 ;
293 [label="gini = 0.0\nsamples = 1\nvalue = [1, 0]"] ;
292 -> 293 ;
294 [label="gini = 0.0\nsamples = 1\nvalue = [0, 1]"] ;
292 -> 294 ;
295 [label="gini = 0.0\nsamples = 2\nvalue = [2, 0]"] ;
283 -> 295 ;
296 [label="gini = 0.0\nsamples = 1\nvalue = [0, 1]"] ;
276 -> 296 ;
297 [label="Age <= 41.5\ngini = 0.257\nsamples = 33\nvalue = [5, 28]"] ;
249 -> 297 ;
298 [label="Fare <= 15.621\ngini = 0.219\nsamples = 32\nvalue = [4, 28]"] ;
297 -> 298 ;
299 [label="Fare <= 14.115\ngini = 0.346\nsamples = 18\nvalue = [4, 14]"] ;
298 -> 299 ;
300 [label="Age <= 2.5\ngini = 0.142\nsamples = 13\nvalue = [1, 12]"] ;
299 -> 300 ;
301 [label="SibSp <= 0.5\ngini = 0.444\nsamples = 3\nvalue = [1, 2]"] ;
300 -> 301 ;
302 [label="gini = 0.0\nsamples = 1\nvalue = [1, 0]"] ;
301 -> 302 ;
303 [label="gini = 0.0\nsamples = 2\nvalue = [0, 2]"] ;
301 -> 303 ;
304 [label="gini = 0.0\nsamples = 10\nvalue = [0, 10]"] ;
300 -> 304 ;
305 [label="Parch <= 1.5\ngini = 0.48\nsamples = 5\nvalue = [3, 2]"] ;
299 -> 305 ;
306 [label="Age <= 13.5\ngini = 0.375\nsamples = 4\nvalue = [3, 1]"] ;
305 -> 306 ;
307 [label="gini = 0.5\nsamples = 2\nvalue = [1, 1]"] ;
306 -> 307 ;
308 [label="gini = 0.0\nsamples = 2\nvalue = [2, 0]"] ;
306 -> 308 ;
309 [label="gini = 0.0\nsamples = 1\nvalue = [0, 1]"] ;
305 -> 309 ;
310 [label="gini = 0.0\nsamples = 14\nvalue = [0, 14]"] ;
298 -> 310 ;
311 [label="gini = 0.0\nsamples = 1\nvalue = [1, 0]"] ;
297 -> 311 ;
312 [label="SibSp <= 3.5\ngini = 0.432\nsamples = 19\nvalue = [13, 6]"] ;
246 -> 312 ;
313 [label="Parch <= 0.5\ngini = 0.36\nsamples = 17\nvalue = [13, 4]"] ;
312 -> 313 ;
314 [label="gini = 0.0\nsamples = 1\nvalue = [0, 1]"] ;
313 -> 314 ;
315 [label="SibSp <= 1.5\ngini = 0.305\nsamples = 16\nvalue = [13, 3]"] ;
313 -> 315 ;
316 [label="Age <= 38.5\ngini = 0.42\nsamples = 10\nvalue = [7, 3]"] ;
315 -> 316 ;
317 [label="SibSp <= 0.5\ngini = 0.48\nsamples = 5\nvalue = [2, 3]"] ;
316 -> 317 ;
318 [label="Age <= 7.0\ngini = 0.444\nsamples = 3\nvalue = [2, 1]"] ;
317 -> 318 ;
319 [label="gini = 0.0\nsamples = 1\nvalue = [0, 1]"] ;
318 -> 319 ;
320 [label="gini = 0.0\nsamples = 2\nvalue = [2, 0]"] ;
318 -> 320 ;
321 [label="gini = 0.0\nsamples = 2\nvalue = [0, 2]"] ;
317 -> 321 ;
322 [label="gini = 0.0\nsamples = 5\nvalue = [5, 0]"] ;
316 -> 322 ;
323 [label="gini = 0.0\nsamples = 6\nvalue = [6, 0]"] ;
315 -> 323 ;
324 [label="gini = 0.0\nsamples = 2\nvalue = [0, 2]"] ;
312 -> 324 ;
}